Language model created by QuickLM on Thu Apr  6 07:40:16 EDT 2017
Copyright (c) 1996-2010 Carnegie Mellon University and Alexander I. Rudnicky

The model is in standard ARPA format, designed by Doug Paul while he was at MITRE.

The code that was used to produce this language model is available in Open Source.
Please visit http://www.speech.cs.cmu.edu/tools/ for more information

The (fixed) discount mass is 0.5. The backoffs are computed using the ratio method.
This model based on a corpus of 3 sentences and 8 words

\data\
ngram 1=8
ngram 2=9
ngram 3=7

\1-grams:
-0.9700 </s> -0.3010
-0.9700 <s> -0.2518
-1.4472 A -0.2518
-1.4472 E -0.2688
-1.4472 H -0.2852
-1.1461 L -0.2518
-1.4472 S -0.2852
-1.1461 SHELLA -0.2518

\2-grams:
-0.7782 <s> S 0.0000
-0.4771 <s> SHELLA 0.0000
-0.3010 A </s> -0.3010
-0.3010 E L -0.1761
-0.3010 H E 0.0000
-0.6021 L A 0.0000
-0.6021 L L -0.1761
-0.3010 S H 0.0000
-0.3010 SHELLA </s> -0.3010

\3-grams:
-0.3010 <s> S H
-0.3010 <s> SHELLA </s>
-0.3010 E L L
-0.3010 H E L
-0.3010 L A </s>
-0.3010 L L A
-0.3010 S H E

\end\